digraph Tree {
node [shape=box, style="filled, rounded", color="black", fontname="helvetica"] ;
edge [fontname="helvetica"] ;
0 [label="x1 <= 0.387\nsquared_error = 0.006\nsamples = 300\nvalue = 0.086", fillcolor="#f2c29f"] ;
1 [label="x1 <= -0.344\nsquared_error = 0.005\nsamples = 262\nvalue = 0.07", fillcolor="#f4c7a8"] ;
0 -> 1 [labeldistance=2.5, labelangle=45, headlabel="True"] ;
2 [label="x1 <= -0.461\nsquared_error = 0.002\nsamples = 49\nvalue = 0.179", fillcolor="#eca16b"] ;
1 -> 2 ;
3 [label="x1 <= -0.478\nsquared_error = 0.001\nsamples = 15\nvalue = 0.225", fillcolor="#e89051"] ;
2 -> 3 ;
4 [label="x1 <= -0.492\nsquared_error = 0.0\nsamples = 7\nvalue = 0.242", fillcolor="#e78a48"] ;
3 -> 4 ;
5 [label="x1 <= -0.494\nsquared_error = 0.0\nsamples = 3\nvalue = 0.253", fillcolor="#e68641"] ;
4 -> 5 ;
6 [label="x1 <= -0.495\nsquared_error = 0.0\nsamples = 2\nvalue = 0.25", fillcolor="#e68743"] ;
5 -> 6 ;
7 [label="squared_error = 0.0\nsamples = 1\nvalue = 0.256", fillcolor="#e6853f"] ;
6 -> 7 ;
8 [label="squared_error = 0.0\nsamples = 1\nvalue = 0.244", fillcolor="#e78a47"] ;
6 -> 8 ;
9 [label="squared_error = 0.0\nsamples = 1\nvalue = 0.259", fillcolor="#e6843e"] ;
5 -> 9 ;
10 [label="x1 <= -0.488\nsquared_error = 0.0\nsamples = 4\nvalue = 0.233", fillcolor="#e88e4d"] ;
4 -> 10 ;
11 [label="squared_error = 0.0\nsamples = 1\nvalue = 0.199", fillcolor="#ea995f"] ;
10 -> 11 ;
12 [label="x1 <= -0.484\nsquared_error = 0.0\nsamples = 3\nvalue = 0.244", fillcolor="#e78a46"] ;
10 -> 12 ;
13 [label="squared_error = 0.0\nsamples = 1\nvalue = 0.252", fillcolor="#e68742"] ;
12 -> 13 ;
14 [label="x1 <= -0.481\nsquared_error = 0.0\nsamples = 2\nvalue = 0.24", fillcolor="#e78b49"] ;
12 -> 14 ;
15 [label="squared_error = 0.0\nsamples = 1\nvalue = 0.235", fillcolor="#e78d4b"] ;
14 -> 15 ;
16 [label="squared_error = 0.0\nsamples = 1\nvalue = 0.245", fillcolor="#e78946"] ;
14 -> 16 ;
17 [label="x1 <= -0.464\nsquared_error = 0.0\nsamples = 8\nvalue = 0.21", fillcolor="#e99659"] ;
3 -> 17 ;
18 [label="x1 <= -0.467\nsquared_error = 0.0\nsamples = 6\nvalue = 0.205", fillcolor="#ea975c"] ;
17 -> 18 ;
19 [label="x1 <= -0.469\nsquared_error = 0.0\nsamples = 4\nvalue = 0.214", fillcolor="#e99457"] ;
18 -> 19 ;
20 [label="x1 <= -0.472\nsquared_error = 0.0\nsamples = 3\nvalue = 0.211", fillcolor="#e99559"] ;
19 -> 20 ;
21 [label="x1 <= -0.475\nsquared_error = 0.0\nsamples = 2\nvalue = 0.217", fillcolor="#e99356"] ;
20 -> 21 ;
22 [label="squared_error = 0.0\nsamples = 1\nvalue = 0.209", fillcolor="#e9965a"] ;
21 -> 22 ;
23 [label="squared_error = 0.0\nsamples = 1\nvalue = 0.225", fillcolor="#e89051"] ;
21 -> 23 ;
24 [label="squared_error = 0.0\nsamples = 1\nvalue = 0.201", fillcolor="#ea995f"] ;
20 -> 24 ;
25 [label="squared_error = 0.0\nsamples = 1\nvalue = 0.222", fillcolor="#e89153"] ;
19 -> 25 ;
26 [label="x1 <= -0.465\nsquared_error = 0.0\nsamples = 2\nvalue = 0.187", fillcolor="#eb9e67"] ;
18 -> 26 ;
27 [label="squared_error = 0.0\nsamples = 1\nvalue = 0.187", fillcolor="#eb9e66"] ;
26 -> 27 ;
28 [label="squared_error = 0.0\nsamples = 1\nvalue = 0.186", fillcolor="#eb9e67"] ;
26 -> 28 ;
29 [label="x1 <= -0.463\nsquared_error = 0.0\nsamples = 2\nvalue = 0.226", fillcolor="#e89051"] ;
17 -> 29 ;
30 [label="squared_error = 0.0\nsamples = 1\nvalue = 0.22", fillcolor="#e99254"] ;
29 -> 30 ;
31 [label="squared_error = 0.0\nsamples = 1\nvalue = 0.231", fillcolor="#e88e4e"] ;
29 -> 31 ;
32 [label="x1 <= -0.4\nsquared_error = 0.001\nsamples = 34\nvalue = 0.158", fillcolor="#eda876"] ;
2 -> 32 ;
33 [label="x1 <= -0.415\nsquared_error = 0.001\nsamples = 19\nvalue = 0.173", fillcolor="#eca36e"] ;
32 -> 33 ;
34 [label="x1 <= -0.457\nsquared_error = 0.0\nsamples = 11\nvalue = 0.182", fillcolor="#eba069"] ;
33 -> 34 ;
35 [label="squared_error = 0.0\nsamples = 1\nvalue = 0.163", fillcolor="#eda674"] ;
34 -> 35 ;
36 [label="x1 <= -0.451\nsquared_error = 0.0\nsamples = 10\nvalue = 0.184", fillcolor="#eb9f68"] ;
34 -> 36 ;
37 [label="x1 <= -0.454\nsquared_error = 0.0\nsamples = 2\nvalue = 0.202", fillcolor="#ea985e"] ;
36 -> 37 ;
38 [label="squared_error = 0.0\nsamples = 1\nvalue = 0.201", fillcolor="#ea995f"] ;
37 -> 38 ;
39 [label="squared_error = 0.0\nsamples = 1\nvalue = 0.204", fillcolor="#ea985d"] ;
37 -> 39 ;
40 [label="x1 <= -0.424\nsquared_error = 0.0\nsamples = 8\nvalue = 0.18", fillcolor="#eca16b"] ;
36 -> 40 ;
41 [label="x1 <= -0.426\nsquared_error = 0.0\nsamples = 6\nvalue = 0.176", fillcolor="#eca26d"] ;
40 -> 41 ;
42 [label="x1 <= -0.439\nsquared_error = 0.0\nsamples = 5\nvalue = 0.18", fillcolor="#eba06a"] ;
41 -> 42 ;
43 [label="x1 <= -0.445\nsquared_error = 0.0\nsamples = 2\nvalue = 0.176", fillcolor="#eca26d"] ;
42 -> 43 ;
44 [label="squared_error = 0.0\nsamples = 1\nvalue = 0.176", fillcolor="#eca26d"] ;
43 -> 44 ;
45 [label="squared_error = 0.0\nsamples = 1\nvalue = 0.175", fillcolor="#eca26d"] ;
43 -> 45 ;
46 [label="x1 <= -0.436\nsquared_error = 0.0\nsamples = 3\nvalue = 0.183", fillcolor="#eb9f69"] ;
42 -> 46 ;
47 [label="squared_error = 0.0\nsamples = 1\nvalue = 0.191", fillcolor="#eb9c64"] ;
46 -> 47 ;
48 [label="x1 <= -0.43\nsquared_error = 0.0\nsamples = 2\nvalue = 0.178", fillcolor="#eca16b"] ;
46 -> 48 ;
49 [label="squared_error = 0.0\nsamples = 1\nvalue = 0.182", fillcolor="#eba069"] ;
48 -> 49 ;
50 [label="squared_error = -0.0\nsamples = 1\nvalue = 0.175", fillcolor="#eca26d"] ;
48 -> 50 ;
51 [label="squared_error = -0.0\nsamples = 1\nvalue = 0.156", fillcolor="#eda978"] ;
41 -> 51 ;
52 [label="x1 <= -0.419\nsquared_error = 0.0\nsamples = 2\nvalue = 0.19", fillcolor="#eb9d65"] ;
40 -> 52 ;
53 [label="squared_error = 0.0\nsamples = 1\nvalue = 0.186", fillcolor="#eb9e67"] ;
52 -> 53 ;
54 [label="squared_error = 0.0\nsamples = 1\nvalue = 0.194", fillcolor="#ea9b62"] ;
52 -> 54 ;
55 [label="x1 <= -0.406\nsquared_error = 0.001\nsamples = 8\nvalue = 0.16", fillcolor="#eda775"] ;
33 -> 55 ;
56 [label="x1 <= -0.413\nsquared_error = 0.001\nsamples = 5\nvalue = 0.145", fillcolor="#eead7e"] ;
55 -> 56 ;
57 [label="squared_error = 0.0\nsamples = 1\nvalue = 0.122", fillcolor="#f0b58b"] ;
56 -> 57 ;
58 [label="x1 <= -0.411\nsquared_error = 0.0\nsamples = 4\nvalue = 0.15", fillcolor="#eeab7b"] ;
56 -> 58 ;
59 [label="squared_error = 0.0\nsamples = 1\nvalue = 0.178", fillcolor="#eca16c"] ;
58 -> 59 ;
60 [label="x1 <= -0.408\nsquared_error = 0.0\nsamples = 3\nvalue = 0.141", fillcolor="#eeae80"] ;
58 -> 60 ;
61 [label="squared_error = 0.0\nsamples = 1\nvalue = 0.116", fillcolor="#f0b78e"] ;
60 -> 61 ;
62 [label="x1 <= -0.407\nsquared_error = 0.0\nsamples = 2\nvalue = 0.154", fillcolor="#edaa79"] ;
60 -> 62 ;
63 [label="squared_error = 0.0\nsamples = 1\nvalue = 0.158", fillcolor="#eda877"] ;
62 -> 63 ;
64 [label="squared_error = -0.0\nsamples = 1\nvalue = 0.149", fillcolor="#eeab7c"] ;
62 -> 64 ;
65 [label="x1 <= -0.403\nsquared_error = 0.0\nsamples = 3\nvalue = 0.187", fillcolor="#eb9e67"] ;
55 -> 65 ;
66 [label="x1 <= -0.404\nsquared_error = 0.0\nsamples = 2\nvalue = 0.197", fillcolor="#ea9a61"] ;
65 -> 66 ;
67 [label="squared_error = 0.0\nsamples = 1\nvalue = 0.188", fillcolor="#eb9e66"] ;
66 -> 67 ;
68 [label="squared_error = -0.0\nsamples = 1\nvalue = 0.207", fillcolor="#ea975b"] ;
66 -> 68 ;
69 [label="squared_error = -0.0\nsamples = 1\nvalue = 0.166", fillcolor="#eda572"] ;
65 -> 69 ;
70 [label="x1 <= -0.388\nsquared_error = 0.001\nsamples = 15\nvalue = 0.14", fillcolor="#eeaf81"] ;
32 -> 70 ;
71 [label="x1 <= -0.395\nsquared_error = 0.0\nsamples = 3\nvalue = 0.119", fillcolor="#f0b68d"] ;
70 -> 71 ;
72 [label="squared_error = 0.0\nsamples = 1\nvalue = 0.108", fillcolor="#f1ba93"] ;
71 -> 72 ;
73 [label="x1 <= -0.391\nsquared_error = 0.0\nsamples = 2\nvalue = 0.124", fillcolor="#f0b489"] ;
71 -> 73 ;
74 [label="squared_error = 0.0\nsamples = 1\nvalue = 0.127", fillcolor="#efb388"] ;
73 -> 74 ;
75 [label="squared_error = 0.0\nsamples = 1\nvalue = 0.122", fillcolor="#f0b58b"] ;
73 -> 75 ;
76 [label="x1 <= -0.375\nsquared_error = 0.001\nsamples = 12\nvalue = 0.145", fillcolor="#eead7e"] ;
70 -> 76 ;
77 [label="x1 <= -0.382\nsquared_error = 0.001\nsamples = 5\nvalue = 0.166", fillcolor="#eca572"] ;
76 -> 77 ;
78 [label="x1 <= -0.385\nsquared_error = 0.0\nsamples = 2\nvalue = 0.184", fillcolor="#eb9f68"] ;
77 -> 78 ;
79 [label="squared_error = 0.0\nsamples = 1\nvalue = 0.188", fillcolor="#eb9e66"] ;
78 -> 79 ;
80 [label="squared_error = 0.0\nsamples = 1\nvalue = 0.181", fillcolor="#eba06a"] ;
78 -> 80 ;
81 [label="x1 <= -0.38\nsquared_error = 0.001\nsamples = 3\nvalue = 0.154", fillcolor="#edaa79"] ;
77 -> 81 ;
82 [label="squared_error = 0.0\nsamples = 1\nvalue = 0.12", fillcolor="#f0b68c"] ;
81 -> 82 ;
83 [label="x1 <= -0.379\nsquared_error = 0.0\nsamples = 2\nvalue = 0.171", fillcolor="#eca36f"] ;
81 -> 83 ;
84 [label="squared_error = 0.0\nsamples = 1\nvalue = 0.165", fillcolor="#eda673"] ;
83 -> 84 ;
85 [label="squared_error = 0.0\nsamples = 1\nvalue = 0.178", fillcolor="#eca16c"] ;
83 -> 85 ;
86 [label="x1 <= -0.361\nsquared_error = 0.001\nsamples = 7\nvalue = 0.129", fillcolor="#efb287"] ;
76 -> 86 ;
87 [label="x1 <= -0.368\nsquared_error = 0.0\nsamples = 2\nvalue = 0.094", fillcolor="#f2bf9a"] ;
86 -> 87 ;
88 [label="squared_error = 0.0\nsamples = 1\nvalue = 0.09", fillcolor="#f2c09d"] ;
87 -> 88 ;
89 [label="squared_error = 0.0\nsamples = 1\nvalue = 0.098", fillcolor="#f2be98"] ;
87 -> 89 ;
90 [label="x1 <= -0.357\nsquared_error = 0.001\nsamples = 5\nvalue = 0.143", fillcolor="#eead7f"] ;
86 -> 90 ;
91 [label="x1 <= -0.359\nsquared_error = 0.0\nsamples = 3\nvalue = 0.163", fillcolor="#eda674"] ;
90 -> 91 ;
92 [label="x1 <= -0.36\nsquared_error = 0.0\nsamples = 2\nvalue = 0.168", fillcolor="#eca571"] ;
91 -> 92 ;
93 [label="squared_error = 0.0\nsamples = 1\nvalue = 0.161", fillcolor="#eda775"] ;
92 -> 93 ;
94 [label="squared_error = -0.0\nsamples = 1\nvalue = 0.175", fillcolor="#eca26d"] ;
92 -> 94 ;
95 [label="squared_error = 0.0\nsamples = 1\nvalue = 0.153", fillcolor="#edaa79"] ;
91 -> 95 ;
96 [label="x1 <= -0.35\nsquared_error = 0.0\nsamples = 2\nvalue = 0.114", fillcolor="#f0b88f"] ;
90 -> 96 ;
97 [label="squared_error = 0.0\nsamples = 1\nvalue = 0.103", fillcolor="#f1bc95"] ;
96 -> 97 ;
98 [label="squared_error = 0.0\nsamples = 1\nvalue = 0.124", fillcolor="#f0b48a"] ;
96 -> 98 ;
99 [label="x1 <= 0.266\nsquared_error = 0.002\nsamples = 213\nvalue = 0.045", fillcolor="#f5d0b6"] ;
1 -> 99 ;
100 [label="x1 <= -0.214\nsquared_error = 0.002\nsamples = 178\nvalue = 0.035", fillcolor="#f6d4bc"] ;
99 -> 100 ;
101 [label="x1 <= -0.294\nsquared_error = 0.001\nsamples = 40\nvalue = 0.081", fillcolor="#f3c4a2"] ;
100 -> 101 ;
102 [label="x1 <= -0.342\nsquared_error = 0.001\nsamples = 17\nvalue = 0.097", fillcolor="#f2be99"] ;
101 -> 102 ;
103 [label="squared_error = 0.0\nsamples = 1\nvalue = 0.058", fillcolor="#f4ccaf"] ;
102 -> 103 ;
104 [label="x1 <= -0.334\nsquared_error = 0.001\nsamples = 16\nvalue = 0.099", fillcolor="#f1bd97"] ;
102 -> 104 ;
105 [label="x1 <= -0.339\nsquared_error = 0.001\nsamples = 3\nvalue = 0.124", fillcolor="#f0b489"] ;
104 -> 105 ;
106 [label="x1 <= -0.339\nsquared_error = 0.0\nsamples = 2\nvalue = 0.107", fillcolor="#f1ba93"] ;
105 -> 106 ;
107 [label="squared_error = 0.0\nsamples = 1\nvalue = 0.114", fillcolor="#f0b88f"] ;
106 -> 107 ;
108 [label="squared_error = 0.0\nsamples = 1\nvalue = 0.1", fillcolor="#f1bd97"] ;
106 -> 108 ;
109 [label="squared_error = 0.0\nsamples = 1\nvalue = 0.16", fillcolor="#eda876"] ;
105 -> 109 ;
110 [label="x1 <= -0.316\nsquared_error = 0.001\nsamples = 13\nvalue = 0.094", fillcolor="#f2bf9b"] ;
104 -> 110 ;
111 [label="x1 <= -0.324\nsquared_error = 0.0\nsamples = 6\nvalue = 0.079", fillcolor="#f3c4a3"] ;
110 -> 111 ;
112 [label="x1 <= -0.328\nsquared_error = 0.0\nsamples = 3\nvalue = 0.09", fillcolor="#f2c09d"] ;
111 -> 112 ;
113 [label="x1 <= -0.33\nsquared_error = 0.0\nsamples = 2\nvalue = 0.084", fillcolor="#f3c3a0"] ;
112 -> 113 ;
114 [label="squared_error = 0.0\nsamples = 1\nvalue = 0.09", fillcolor="#f2c09d"] ;
113 -> 114 ;
115 [label="squared_error = -0.0\nsamples = 1\nvalue = 0.078", fillcolor="#f3c5a3"] ;
113 -> 115 ;
116 [label="squared_error = 0.0\nsamples = 1\nvalue = 0.102", fillcolor="#f1bc96"] ;
112 -> 116 ;
117 [label="x1 <= -0.321\nsquared_error = 0.001\nsamples = 3\nvalue = 0.068", fillcolor="#f4c8a9"] ;
111 -> 117 ;
118 [label="squared_error = 0.0\nsamples = 1\nvalue = 0.035", fillcolor="#f6d4bb"] ;
117 -> 118 ;
119 [label="x1 <= -0.317\nsquared_error = 0.0\nsamples = 2\nvalue = 0.084", fillcolor="#f3c3a0"] ;
117 -> 119 ;
120 [label="squared_error = 0.0\nsamples = 1\nvalue = 0.087", fillcolor="#f2c29e"] ;
119 -> 120 ;
121 [label="squared_error = -0.0\nsamples = 1\nvalue = 0.081", fillcolor="#f3c4a2"] ;
119 -> 121 ;
122 [label="x1 <= -0.313\nsquared_error = 0.0\nsamples = 7\nvalue = 0.106", fillcolor="#f1bb94"] ;
110 -> 122 ;
123 [label="x1 <= -0.314\nsquared_error = 0.0\nsamples = 2\nvalue = 0.127", fillcolor="#efb388"] ;
122 -> 123 ;
124 [label="squared_error = 0.0\nsamples = 1\nvalue = 0.119", fillcolor="#f0b68c"] ;
123 -> 124 ;
125 [label="squared_error = 0.0\nsamples = 1\nvalue = 0.135", fillcolor="#efb083"] ;
123 -> 125 ;
126 [label="x1 <= -0.303\nsquared_error = 0.0\nsamples = 5\nvalue = 0.098", fillcolor="#f2be98"] ;
122 -> 126 ;
127 [label="x1 <= -0.304\nsquared_error = 0.0\nsamples = 3\nvalue = 0.092", fillcolor="#f2c09b"] ;
126 -> 127 ;
128 [label="x1 <= -0.309\nsquared_error = 0.0\nsamples = 2\nvalue = 0.102", fillcolor="#f1bc96"] ;
127 -> 128 ;
129 [label="squared_error = 0.0\nsamples = 1\nvalue = 0.092", fillcolor="#f2c09c"] ;
128 -> 129 ;
130 [label="squared_error = 0.0\nsamples = 1\nvalue = 0.111", fillcolor="#f1b991"] ;
128 -> 130 ;
131 [label="squared_error = 0.0\nsamples = 1\nvalue = 0.074", fillcolor="#f3c6a6"] ;
127 -> 131 ;
132 [label="x1 <= -0.301\nsquared_error = 0.0\nsamples = 2\nvalue = 0.106", fillcolor="#f1bb94"] ;
126 -> 132 ;
133 [label="squared_error = 0.0\nsamples = 1\nvalue = 0.109", fillcolor="#f1ba92"] ;
132 -> 133 ;
134 [label="squared_error = 0.0\nsamples = 1\nvalue = 0.104", fillcolor="#f1bc95"] ;
132 -> 134 ;
135 [label="x1 <= -0.225\nsquared_error = 0.001\nsamples = 23\nvalue = 0.069", fillcolor="#f4c8a8"] ;
101 -> 135 ;
136 [label="x1 <= -0.259\nsquared_error = 0.001\nsamples = 19\nvalue = 0.073", fillcolor="#f3c7a6"] ;
135 -> 136 ;
137 [label="x1 <= -0.272\nsquared_error = 0.0\nsamples = 10\nvalue = 0.066", fillcolor="#f4c9aa"] ;
136 -> 137 ;
138 [label="x1 <= -0.281\nsquared_error = 0.0\nsamples = 6\nvalue = 0.08", fillcolor="#f3c4a2"] ;
137 -> 138 ;
139 [label="x1 <= -0.286\nsquared_error = 0.0\nsamples = 2\nvalue = 0.063", fillcolor="#f4caac"] ;
138 -> 139 ;
140 [label="squared_error = 0.0\nsamples = 1\nvalue = 0.073", fillcolor="#f3c7a6"] ;
139 -> 140 ;
141 [label="squared_error = -0.0\nsamples = 1\nvalue = 0.054", fillcolor="#f5cdb1"] ;
139 -> 141 ;
142 [label="x1 <= -0.273\nsquared_error = 0.0\nsamples = 4\nvalue = 0.088", fillcolor="#f2c19e"] ;
138 -> 142 ;
143 [label="x1 <= -0.277\nsquared_error = 0.0\nsamples = 3\nvalue = 0.093", fillcolor="#f2bf9b"] ;
142 -> 143 ;
144 [label="squared_error = 0.0\nsamples = 1\nvalue = 0.089", fillcolor="#f2c19d"] ;
143 -> 144 ;
145 [label="x1 <= -0.275\nsquared_error = 0.0\nsamples = 2\nvalue = 0.095", fillcolor="#f2bf9a"] ;
143 -> 145 ;
146 [label="squared_error = 0.0\nsamples = 1\nvalue = 0.096", fillcolor="#f2be99"] ;
145 -> 146 ;
147 [label="squared_error = 0.0\nsamples = 1\nvalue = 0.093", fillcolor="#f2bf9b"] ;
145 -> 147 ;
148 [label="squared_error = -0.0\nsamples = 1\nvalue = 0.073", fillcolor="#f3c6a6"] ;
142 -> 148 ;
149 [label="x1 <= -0.261\nsquared_error = 0.0\nsamples = 4\nvalue = 0.046", fillcolor="#f5d0b5"] ;
137 -> 149 ;
150 [label="x1 <= -0.267\nsquared_error = 0.0\nsamples = 3\nvalue = 0.044", fillcolor="#f5d1b6"] ;
149 -> 150 ;
151 [label="squared_error = 0.0\nsamples = 1\nvalue = 0.049", fillcolor="#f5cfb4"] ;
150 -> 151 ;
152 [label="x1 <= -0.263\nsquared_error = 0.0\nsamples = 2\nvalue = 0.041", fillcolor="#f6d2b8"] ;
150 -> 152 ;
153 [label="squared_error = 0.0\nsamples = 1\nvalue = 0.041", fillcolor="#f6d2b8"] ;
152 -> 153 ;
154 [label="squared_error = -0.0\nsamples = 1\nvalue = 0.042", fillcolor="#f6d2b8"] ;
152 -> 154 ;
155 [label="squared_error = 0.0\nsamples = 1\nvalue = 0.052", fillcolor="#f5ceb2"] ;
149 -> 155 ;
156 [label="x1 <= -0.257\nsquared_error = 0.001\nsamples = 9\nvalue = 0.08", fillcolor="#f3c4a2"] ;
136 -> 156 ;
157 [label="x1 <= -0.258\nsquared_error = 0.0\nsamples = 2\nvalue = 0.121", fillcolor="#f0b58b"] ;
156 -> 157 ;
158 [label="squared_error = 0.0\nsamples = 1\nvalue = 0.119", fillcolor="#f0b68c"] ;
157 -> 158 ;
159 [label="squared_error = 0.0\nsamples = 1\nvalue = 0.123", fillcolor="#f0b58a"] ;
157 -> 159 ;
160 [label="x1 <= -0.249\nsquared_error = 0.001\nsamples = 7\nvalue = 0.068", fillcolor="#f4c8a9"] ;
156 -> 160 ;
161 [label="x1 <= -0.253\nsquared_error = 0.0\nsamples = 2\nvalue = 0.044", fillcolor="#f5d1b7"] ;
160 -> 161 ;
162 [label="squared_error = 0.0\nsamples = 1\nvalue = 0.034", fillcolor="#f6d4bc"] ;
161 -> 162 ;
163 [label="squared_error = 0.0\nsamples = 1\nvalue = 0.053", fillcolor="#f5ceb1"] ;
161 -> 163 ;
164 [label="x1 <= -0.242\nsquared_error = 0.0\nsamples = 5\nvalue = 0.078", fillcolor="#f3c5a3"] ;
160 -> 164 ;
165 [label="x1 <= -0.245\nsquared_error = 0.0\nsamples = 2\nvalue = 0.098", fillcolor="#f2be98"] ;
164 -> 165 ;
166 [label="squared_error = 0.0\nsamples = 1\nvalue = 0.09", fillcolor="#f2c09c"] ;
165 -> 166 ;
167 [label="squared_error = -0.0\nsamples = 1\nvalue = 0.105", fillcolor="#f1bb94"] ;
165 -> 167 ;
168 [label="x1 <= -0.232\nsquared_error = 0.0\nsamples = 3\nvalue = 0.065", fillcolor="#f4c9ab"] ;
164 -> 168 ;
169 [label="x1 <= -0.238\nsquared_error = 0.0\nsamples = 2\nvalue = 0.058", fillcolor="#f4ccaf"] ;
168 -> 169 ;
170 [label="squared_error = 0.0\nsamples = 1\nvalue = 0.064", fillcolor="#f4caab"] ;
169 -> 170 ;
171 [label="squared_error = 0.0\nsamples = 1\nvalue = 0.052", fillcolor="#f5ceb2"] ;
169 -> 171 ;
172 [label="squared_error = 0.0\nsamples = 1\nvalue = 0.078", fillcolor="#f3c5a4"] ;
168 -> 172 ;
173 [label="x1 <= -0.219\nsquared_error = 0.0\nsamples = 4\nvalue = 0.053", fillcolor="#f5ceb2"] ;
135 -> 173 ;
174 [label="x1 <= -0.22\nsquared_error = 0.0\nsamples = 2\nvalue = 0.032", fillcolor="#f6d5bd"] ;
173 -> 174 ;
175 [label="squared_error = 0.0\nsamples = 1\nvalue = 0.031", fillcolor="#f6d5be"] ;
174 -> 175 ;
176 [label="squared_error = 0.0\nsamples = 1\nvalue = 0.032", fillcolor="#f6d5bd"] ;
174 -> 176 ;
177 [label="x1 <= -0.217\nsquared_error = 0.0\nsamples = 2\nvalue = 0.074", fillcolor="#f3c6a6"] ;
173 -> 177 ;
178 [label="squared_error = 0.0\nsamples = 1\nvalue = 0.075", fillcolor="#f3c6a5"] ;
177 -> 178 ;
179 [label="squared_error = -0.0\nsamples = 1\nvalue = 0.072", fillcolor="#f3c7a6"] ;
177 -> 179 ;
180 [label="x1 <= 0.168\nsquared_error = 0.001\nsamples = 138\nvalue = 0.021", fillcolor="#f7d9c3"] ;
100 -> 180 ;
181 [label="x1 <= -0.166\nsquared_error = 0.001\nsamples = 113\nvalue = 0.014", fillcolor="#f8dbc7"] ;
180 -> 181 ;
182 [label="x1 <= -0.212\nsquared_error = 0.001\nsamples = 20\nvalue = 0.035", fillcolor="#f6d4bb"] ;
181 -> 182 ;
183 [label="squared_error = 0.0\nsamples = 1\nvalue = -0.005", fillcolor="#f9e2d2"] ;
182 -> 183 ;
184 [label="x1 <= -0.184\nsquared_error = 0.001\nsamples = 19\nvalue = 0.037", fillcolor="#f6d3ba"] ;
182 -> 184 ;
185 [label="x1 <= -0.197\nsquared_error = 0.001\nsamples = 11\nvalue = 0.046", fillcolor="#f5d0b5"] ;
184 -> 185 ;
186 [label="x1 <= -0.206\nsquared_error = 0.002\nsamples = 6\nvalue = 0.038", fillcolor="#f6d3ba"] ;
185 -> 186 ;
187 [label="x1 <= -0.207\nsquared_error = 0.001\nsamples = 4\nvalue = 0.055", fillcolor="#f5cdb0"] ;
186 -> 187 ;
188 [label="x1 <= -0.208\nsquared_error = 0.001\nsamples = 3\nvalue = 0.04", fillcolor="#f6d2b9"] ;
187 -> 188 ;
189 [label="x1 <= -0.21\nsquared_error = 0.0\nsamples = 2\nvalue = 0.061", fillcolor="#f4cbad"] ;
188 -> 189 ;
190 [label="squared_error = 0.0\nsamples = 1\nvalue = 0.052", fillcolor="#f5ceb2"] ;
189 -> 190 ;
191 [label="squared_error = 0.0\nsamples = 1\nvalue = 0.071", fillcolor="#f3c7a7"] ;
189 -> 191 ;
192 [label="squared_error = 0.0\nsamples = 1\nvalue = -0.002", fillcolor="#f9e1d0"] ;
188 -> 192 ;
193 [label="squared_error = -0.0\nsamples = 1\nvalue = 0.1", fillcolor="#f1bd97"] ;
187 -> 193 ;
194 [label="x1 <= -0.202\nsquared_error = 0.0\nsamples = 2\nvalue = 0.005", fillcolor="#f8dfcc"] ;
186 -> 194 ;
195 [label="squared_error = 0.0\nsamples = 1\nvalue = -0.006", fillcolor="#f9e3d2"] ;
194 -> 195 ;
196 [label="squared_error = 0.0\nsamples = 1\nvalue = 0.017", fillcolor="#f7dbc6"] ;
194 -> 196 ;
197 [label="x1 <= -0.196\nsquared_error = 0.001\nsamples = 5\nvalue = 0.055", fillcolor="#f5cdb0"] ;
185 -> 197 ;
198 [label="squared_error = 0.0\nsamples = 1\nvalue = 0.091", fillcolor="#f2c09c"] ;
197 -> 198 ;
199 [label="x1 <= -0.192\nsquared_error = 0.0\nsamples = 4\nvalue = 0.046", fillcolor="#f5d0b6"] ;
197 -> 199 ;
200 [label="squared_error = 0.0\nsamples = 1\nvalue = 0.025", fillcolor="#f7d8c1"] ;
199 -> 200 ;
201 [label="x1 <= -0.187\nsquared_error = 0.0\nsamples = 3\nvalue = 0.052", fillcolor="#f5ceb2"] ;
199 -> 201 ;
202 [label="x1 <= -0.189\nsquared_error = 0.0\nsamples = 2\nvalue = 0.047", fillcolor="#f5d0b5"] ;
201 -> 202 ;
203 [label="squared_error = 0.0\nsamples = 1\nvalue = 0.056", fillcolor="#f5ccb0"] ;
202 -> 203 ;
204 [label="squared_error = 0.0\nsamples = 1\nvalue = 0.038", fillcolor="#f6d3ba"] ;
202 -> 204 ;
205 [label="squared_error = 0.0\nsamples = 1\nvalue = 0.064", fillcolor="#f4caab"] ;
201 -> 205 ;
206 [label="x1 <= -0.172\nsquared_error = 0.0\nsamples = 8\nvalue = 0.025", fillcolor="#f7d7c1"] ;
184 -> 206 ;
207 [label="x1 <= -0.183\nsquared_error = 0.0\nsamples = 7\nvalue = 0.019", fillcolor="#f7dac4"] ;
206 -> 207 ;
208 [label="squared_error = 0.0\nsamples = 1\nvalue = -0.009", fillcolor="#f9e4d4"] ;
207 -> 208 ;
209 [label="x1 <= -0.176\nsquared_error = 0.0\nsamples = 6\nvalue = 0.024", fillcolor="#f7d8c2"] ;
207 -> 209 ;
210 [label="x1 <= -0.181\nsquared_error = 0.0\nsamples = 3\nvalue = 0.031", fillcolor="#f6d5be"] ;
209 -> 210 ;
211 [label="squared_error = 0.0\nsamples = 1\nvalue = 0.033", fillcolor="#f6d5bd"] ;
210 -> 211 ;
212 [label="x1 <= -0.178\nsquared_error = 0.0\nsamples = 2\nvalue = 0.03", fillcolor="#f6d6be"] ;
210 -> 212 ;
213 [label="squared_error = 0.0\nsamples = 1\nvalue = 0.029", fillcolor="#f7d6bf"] ;
212 -> 213 ;
214 [label="squared_error = 0.0\nsamples = 1\nvalue = 0.032", fillcolor="#f6d5bd"] ;
212 -> 214 ;
215 [label="x1 <= -0.175\nsquared_error = 0.0\nsamples = 3\nvalue = 0.017", fillcolor="#f7dac5"] ;
209 -> 215 ;
216 [label="squared_error = 0.0\nsamples = 1\nvalue = 0.021", fillcolor="#f7d9c3"] ;
215 -> 216 ;
217 [label="x1 <= -0.175\nsquared_error = 0.0\nsamples = 2\nvalue = 0.015", fillcolor="#f8dbc6"] ;
215 -> 217 ;
218 [label="squared_error = 0.0\nsamples = 1\nvalue = 0.016", fillcolor="#f8dbc6"] ;
217 -> 218 ;
219 [label="squared_error = 0.0\nsamples = 1\nvalue = 0.015", fillcolor="#f8dbc7"] ;
217 -> 219 ;
220 [label="squared_error = 0.0\nsamples = 1\nvalue = 0.068", fillcolor="#f4c8a9"] ;
206 -> 220 ;
221 [label="x1 <= 0.109\nsquared_error = 0.001\nsamples = 93\nvalue = 0.01", fillcolor="#f8ddca"] ;
181 -> 221 ;
222 [label="x1 <= 0.107\nsquared_error = 0.001\nsamples = 71\nvalue = 0.006", fillcolor="#f8decc"] ;
221 -> 222 ;
223 [label="x1 <= 0.104\nsquared_error = 0.001\nsamples = 70\nvalue = 0.007", fillcolor="#f8decb"] ;
222 -> 223 ;
224 [label="x1 <= 0.048\nsquared_error = 0.001\nsamples = 69\nvalue = 0.006", fillcolor="#f8decc"] ;
223 -> 224 ;
225 [label="x1 <= 0.022\nsquared_error = 0.001\nsamples = 55\nvalue = 0.009", fillcolor="#f8ddca"] ;
224 -> 225 ;
226 [label="x1 <= -0.001\nsquared_error = 0.001\nsamples = 47\nvalue = 0.007", fillcolor="#f8decb"] ;
225 -> 226 ;
227 [label="x1 <= -0.004\nsquared_error = 0.001\nsamples = 35\nvalue = 0.009", fillcolor="#f8ddca"] ;
226 -> 227 ;
228 [label="x1 <= -0.155\nsquared_error = 0.001\nsamples = 34\nvalue = 0.007", fillcolor="#f8decb"] ;
227 -> 228 ;
229 [label="x1 <= -0.16\nsquared_error = 0.0\nsamples = 4\nvalue = -0.003", fillcolor="#f9e1d1"] ;
228 -> 229 ;
230 [label="x1 <= -0.162\nsquared_error = 0.0\nsamples = 3\nvalue = 0.003", fillcolor="#f8dfcd"] ;
229 -> 230 ;
231 [label="squared_error = 0.0\nsamples = 1\nvalue = 0.014", fillcolor="#f8dbc7"] ;
230 -> 231 ;
232 [label="x1 <= -0.161\nsquared_error = 0.0\nsamples = 2\nvalue = -0.002", fillcolor="#f9e1d0"] ;
230 -> 232 ;
233 [label="squared_error = 0.0\nsamples = 1\nvalue = -0.001", fillcolor="#f9e1d0"] ;
232 -> 233 ;
234 [label="squared_error = 0.0\nsamples = 1\nvalue = -0.003", fillcolor="#f9e2d1"] ;
232 -> 234 ;
235 [label="squared_error = 0.0\nsamples = 1\nvalue = -0.021", fillcolor="#fae8db"] ;
229 -> 235 ;
236 [label="x1 <= -0.14\nsquared_error = 0.001\nsamples = 30\nvalue = 0.009", fillcolor="#f8ddca"] ;
228 -> 236 ;
237 [label="x1 <= -0.141\nsquared_error = 0.0\nsamples = 4\nvalue = 0.026", fillcolor="#f7d7c0"] ;
236 -> 237 ;
238 [label="x1 <= -0.147\nsquared_error = 0.0\nsamples = 3\nvalue = 0.019", fillcolor="#f7dac4"] ;
237 -> 238 ;
239 [label="squared_error = 0.0\nsamples = 1\nvalue = 0.043", fillcolor="#f6d1b7"] ;
238 -> 239 ;
240 [label="x1 <= -0.142\nsquared_error = 0.0\nsamples = 2\nvalue = 0.007", fillcolor="#f8decb"] ;
238 -> 240 ;
241 [label="squared_error = 0.0\nsamples = 1\nvalue = -0.0", fillcolor="#f9e1cf"] ;
240 -> 241 ;
242 [label="squared_error = 0.0\nsamples = 1\nvalue = 0.014", fillcolor="#f8dcc7"] ;
240 -> 242 ;
243 [label="squared_error = 0.0\nsamples = 1\nvalue = 0.048", fillcolor="#f5d0b4"] ;
237 -> 243 ;
244 [label="x1 <= -0.138\nsquared_error = 0.001\nsamples = 26\nvalue = 0.006", fillcolor="#f8decc"] ;
236 -> 244 ;
245 [label="squared_error = 0.0\nsamples = 1\nvalue = -0.035", fillcolor="#fbede2"] ;
244 -> 245 ;
246 [label="x1 <= -0.07\nsquared_error = 0.001\nsamples = 25\nvalue = 0.008", fillcolor="#f8decb"] ;
244 -> 246 ;
247 [label="x1 <= -0.072\nsquared_error = 0.001\nsamples = 16\nvalue = 0.011", fillcolor="#f8ddc9"] ;
246 -> 247 ;
248 [label="x1 <= -0.073\nsquared_error = 0.0\nsamples = 15\nvalue = 0.005", fillcolor="#f8dfcc"] ;
247 -> 248 ;
249 [label="x1 <= -0.112\nsquared_error = 0.0\nsamples = 14\nvalue = 0.004", fillcolor="#f8dfcd"] ;
248 -> 249 ;
250 [label="x1 <= -0.12\nsquared_error = 0.0\nsamples = 9\nvalue = 0.007", fillcolor="#f8decb"] ;
249 -> 250 ;
251 [label="x1 <= -0.135\nsquared_error = 0.0\nsamples = 7\nvalue = 0.003", fillcolor="#f9e0ce"] ;
250 -> 251 ;
252 [label="squared_error = 0.0\nsamples = 1\nvalue = 0.019", fillcolor="#f7dac4"] ;
251 -> 252 ;
253 [label="x1 <= -0.131\nsquared_error = 0.0\nsamples = 6\nvalue = -0.0", fillcolor="#f9e1cf"] ;
251 -> 253 ;
254 [label="x1 <= -0.132\nsquared_error = 0.0\nsamples = 3\nvalue = -0.008", fillcolor="#f9e3d4"] ;
253 -> 254 ;
255 [label="x1 <= -0.133\nsquared_error = 0.0\nsamples = 2\nvalue = -0.001", fillcolor="#f9e1d0"] ;
254 -> 255 ;
256 [label="squared_error = 0.0\nsamples = 1\nvalue = 0.003", fillcolor="#f8dfcd"] ;
255 -> 256 ;
257 [label="squared_error = 0.0\nsamples = 1\nvalue = -0.006", fillcolor="#f9e3d3"] ;
255 -> 257 ;
258 [label="squared_error = 0.0\nsamples = 1\nvalue = -0.022", fillcolor="#fae8db"] ;
254 -> 258 ;
259 [label="x1 <= -0.125\nsquared_error = 0.0\nsamples = 3\nvalue = 0.008", fillcolor="#f8deca"] ;
253 -> 259 ;
260 [label="x1 <= -0.128\nsquared_error = 0.0\nsamples = 2\nvalue = 0.013", fillcolor="#f8dcc8"] ;
259 -> 260 ;
261 [label="squared_error = 0.0\nsamples = 1\nvalue = 0.009", fillcolor="#f8ddca"] ;
260 -> 261 ;
262 [label="squared_error = -0.0\nsamples = 1\nvalue = 0.017", fillcolor="#f7dac5"] ;
260 -> 262 ;
263 [label="squared_error = -0.0\nsamples = 1\nvalue = -0.002", fillcolor="#f9e1d0"] ;
259 -> 263 ;
264 [label="x1 <= -0.114\nsquared_error = 0.0\nsamples = 2\nvalue = 0.024", fillcolor="#f7d8c2"] ;
250 -> 264 ;
265 [label="squared_error = 0.0\nsamples = 1\nvalue = 0.019", fillcolor="#f7dac4"] ;
264 -> 265 ;
266 [label="squared_error = 0.0\nsamples = 1\nvalue = 0.028", fillcolor="#f7d6bf"] ;
264 -> 266 ;
267 [label="x1 <= -0.098\nsquared_error = 0.0\nsamples = 5\nvalue = -0.002", fillcolor="#f9e1d0"] ;
249 -> 267 ;
268 [label="x1 <= -0.109\nsquared_error = 0.0\nsamples = 2\nvalue = -0.015", fillcolor="#fae6d7"] ;
267 -> 268 ;
269 [label="squared_error = 0.0\nsamples = 1\nvalue = -0.005", fillcolor="#f9e2d2"] ;
268 -> 269 ;
270 [label="squared_error = -0.0\nsamples = 1\nvalue = -0.025", fillcolor="#fbe9dd"] ;
268 -> 270 ;
271 [label="x1 <= -0.086\nsquared_error = 0.0\nsamples = 3\nvalue = 0.007", fillcolor="#f8decb"] ;
267 -> 271 ;
272 [label="squared_error = 0.0\nsamples = 1\nvalue = 0.02", fillcolor="#f7d9c4"] ;
271 -> 272 ;
273 [label="x1 <= -0.078\nsquared_error = 0.0\nsamples = 2\nvalue = 0.0", fillcolor="#f9e0cf"] ;
271 -> 273 ;
274 [label="squared_error = 0.0\nsamples = 1\nvalue = 0.004", fillcolor="#f8dfcd"] ;
273 -> 274 ;
275 [label="squared_error = 0.0\nsamples = 1\nvalue = -0.003", fillcolor="#f9e2d1"] ;
273 -> 275 ;
276 [label="squared_error = 0.0\nsamples = 1\nvalue = 0.024", fillcolor="#f7d8c2"] ;
248 -> 276 ;
277 [label="squared_error = 0.0\nsamples = 1\nvalue = 0.098", fillcolor="#f2be98"] ;
247 -> 277 ;
278 [label="x1 <= -0.052\nsquared_error = 0.001\nsamples = 9\nvalue = 0.001", fillcolor="#f9e0ce"] ;
246 -> 278 ;
279 [label="x1 <= -0.064\nsquared_error = 0.0\nsamples = 2\nvalue = -0.036", fillcolor="#fbede3"] ;
278 -> 279 ;
280 [label="squared_error = 0.0\nsamples = 1\nvalue = -0.033", fillcolor="#fbece2"] ;
279 -> 280 ;
281 [label="squared_error = 0.0\nsamples = 1\nvalue = -0.039", fillcolor="#fcefe5"] ;
279 -> 281 ;
282 [label="x1 <= -0.039\nsquared_error = 0.0\nsamples = 7\nvalue = 0.012", fillcolor="#f8dcc8"] ;
278 -> 282 ;
283 [label="squared_error = 0.0\nsamples = 1\nvalue = 0.04", fillcolor="#f6d2b9"] ;
282 -> 283 ;
284 [label="x1 <= -0.007\nsquared_error = 0.0\nsamples = 6\nvalue = 0.007", fillcolor="#f8decb"] ;
282 -> 284 ;
285 [label="x1 <= -0.009\nsquared_error = 0.0\nsamples = 4\nvalue = 0.005", fillcolor="#f8dfcc"] ;
284 -> 285 ;
286 [label="x1 <= -0.031\nsquared_error = 0.0\nsamples = 3\nvalue = 0.009", fillcolor="#f8ddca"] ;
285 -> 286 ;
287 [label="squared_error = 0.0\nsamples = 1\nvalue = 0.004", fillcolor="#f8dfcd"] ;
286 -> 287 ;
288 [label="x1 <= -0.019\nsquared_error = 0.0\nsamples = 2\nvalue = 0.012", fillcolor="#f8dcc9"] ;
286 -> 288 ;
289 [label="squared_error = 0.0\nsamples = 1\nvalue = 0.019", fillcolor="#f7dac5"] ;
288 -> 289 ;
290 [label="squared_error = -0.0\nsamples = 1\nvalue = 0.005", fillcolor="#f8dfcc"] ;
288 -> 290 ;
291 [label="squared_error = 0.0\nsamples = 1\nvalue = -0.007", fillcolor="#f9e3d3"] ;
285 -> 291 ;
292 [label="x1 <= -0.006\nsquared_error = 0.0\nsamples = 2\nvalue = 0.012", fillcolor="#f8dcc8"] ;
284 -> 292 ;
293 [label="squared_error = 0.0\nsamples = 1\nvalue = 0.024", fillcolor="#f7d8c2"] ;
292 -> 293 ;
294 [label="squared_error = 0.0\nsamples = 1\nvalue = 0.0", fillcolor="#f9e0cf"] ;
292 -> 294 ;
295 [label="squared_error = -0.0\nsamples = 1\nvalue = 0.065", fillcolor="#f4c9ab"] ;
227 -> 295 ;
296 [label="x1 <= 0.01\nsquared_error = 0.0\nsamples = 12\nvalue = 0.0", fillcolor="#f9e0cf"] ;
226 -> 296 ;
297 [label="x1 <= 0.002\nsquared_error = 0.0\nsamples = 4\nvalue = -0.012", fillcolor="#fae5d6"] ;
296 -> 297 ;
298 [label="squared_error = 0.0\nsamples = 1\nvalue = -0.026", fillcolor="#fbeade"] ;
297 -> 298 ;
299 [label="x1 <= 0.003\nsquared_error = 0.0\nsamples = 3\nvalue = -0.007", fillcolor="#f9e3d3"] ;
297 -> 299 ;
300 [label="squared_error = 0.0\nsamples = 1\nvalue = 0.006", fillcolor="#f8decb"] ;
299 -> 300 ;
301 [label="x1 <= 0.006\nsquared_error = 0.0\nsamples = 2\nvalue = -0.014", fillcolor="#fae6d7"] ;
299 -> 301 ;
302 [label="squared_error = 0.0\nsamples = 1\nvalue = -0.024", fillcolor="#fae9dd"] ;
301 -> 302 ;
303 [label="squared_error = -0.0\nsamples = 1\nvalue = -0.004", fillcolor="#f9e2d1"] ;
301 -> 303 ;
304 [label="x1 <= 0.011\nsquared_error = 0.0\nsamples = 8\nvalue = 0.006", fillcolor="#f8decc"] ;
296 -> 304 ;
305 [label="squared_error = 0.0\nsamples = 1\nvalue = 0.046", fillcolor="#f5d0b5"] ;
304 -> 305 ;
306 [label="x1 <= 0.013\nsquared_error = 0.0\nsamples = 7\nvalue = 0.0", fillcolor="#f9e0cf"] ;
304 -> 306 ;
307 [label="x1 <= 0.012\nsquared_error = 0.0\nsamples = 2\nvalue = -0.015", fillcolor="#fae6d8"] ;
306 -> 307 ;
308 [label="squared_error = 0.0\nsamples = 1\nvalue = -0.018", fillcolor="#fae7d9"] ;
307 -> 308 ;
309 [label="squared_error = -0.0\nsamples = 1\nvalue = -0.013", fillcolor="#fae5d7"] ;
307 -> 309 ;
310 [label="x1 <= 0.019\nsquared_error = 0.0\nsamples = 5\nvalue = 0.007", fillcolor="#f8decb"] ;
306 -> 310 ;
311 [label="x1 <= 0.016\nsquared_error = 0.0\nsamples = 2\nvalue = 0.02", fillcolor="#f7d9c4"] ;
310 -> 311 ;
312 [label="squared_error = 0.0\nsamples = 1\nvalue = 0.023", fillcolor="#f7d8c2"] ;
311 -> 312 ;
313 [label="squared_error = -0.0\nsamples = 1\nvalue = 0.017", fillcolor="#f7dbc6"] ;
311 -> 313 ;
314 [label="x1 <= 0.019\nsquared_error = 0.0\nsamples = 3\nvalue = -0.002", fillcolor="#f9e1d0"] ;
310 -> 314 ;
315 [label="squared_error = 0.0\nsamples = 1\nvalue = 0.003", fillcolor="#f8dfcd"] ;
314 -> 315 ;
316 [label="x1 <= 0.021\nsquared_error = 0.0\nsamples = 2\nvalue = -0.005", fillcolor="#f9e2d2"] ;
314 -> 316 ;
317 [label="squared_error = 0.0\nsamples = 1\nvalue = -0.011", fillcolor="#fae4d5"] ;
316 -> 317 ;
318 [label="squared_error = -0.0\nsamples = 1\nvalue = 0.002", fillcolor="#f9e0ce"] ;
316 -> 318 ;
319 [label="x1 <= 0.033\nsquared_error = 0.0\nsamples = 8\nvalue = 0.021", fillcolor="#f7d9c3"] ;
225 -> 319 ;
320 [label="x1 <= 0.027\nsquared_error = 0.0\nsamples = 3\nvalue = 0.032", fillcolor="#f6d5bd"] ;
319 -> 320 ;
321 [label="x1 <= 0.024\nsquared_error = 0.0\nsamples = 2\nvalue = 0.016", fillcolor="#f8dbc6"] ;
320 -> 321 ;
322 [label="squared_error = 0.0\nsamples = 1\nvalue = 0.019", fillcolor="#f7dac4"] ;
321 -> 322 ;
323 [label="squared_error = 0.0\nsamples = 1\nvalue = 0.013", fillcolor="#f8dcc8"] ;
321 -> 323 ;
324 [label="squared_error = 0.0\nsamples = 1\nvalue = 0.063", fillcolor="#f4caac"] ;
320 -> 324 ;
325 [label="x1 <= 0.038\nsquared_error = 0.0\nsamples = 5\nvalue = 0.015", fillcolor="#f8dbc7"] ;
319 -> 325 ;
326 [label="squared_error = 0.0\nsamples = 1\nvalue = -0.013", fillcolor="#fae5d6"] ;
325 -> 326 ;
327 [label="x1 <= 0.041\nsquared_error = 0.0\nsamples = 4\nvalue = 0.022", fillcolor="#f7d9c3"] ;
325 -> 327 ;
328 [label="squared_error = 0.0\nsamples = 1\nvalue = 0.046", fillcolor="#f5d0b5"] ;
327 -> 328 ;
329 [label="x1 <= 0.043\nsquared_error = 0.0\nsamples = 3\nvalue = 0.014", fillcolor="#f8dcc7"] ;
327 -> 329 ;
330 [label="squared_error = 0.0\nsamples = 1\nvalue = 0.024", fillcolor="#f7d8c1"] ;
329 -> 330 ;
331 [label="x1 <= 0.045\nsquared_error = 0.0\nsamples = 2\nvalue = 0.008", fillcolor="#f8deca"] ;
329 -> 331 ;
332 [label="squared_error = 0.0\nsamples = 1\nvalue = 0.011", fillcolor="#f8ddc9"] ;
331 -> 332 ;
333 [label="squared_error = -0.0\nsamples = 1\nvalue = 0.006", fillcolor="#f8decc"] ;
331 -> 333 ;
334 [label="x1 <= 0.065\nsquared_error = 0.001\nsamples = 14\nvalue = -0.004", fillcolor="#f9e2d1"] ;
224 -> 334 ;
335 [label="x1 <= 0.052\nsquared_error = 0.001\nsamples = 4\nvalue = -0.029", fillcolor="#fbebdf"] ;
334 -> 335 ;
336 [label="squared_error = 0.0\nsamples = 1\nvalue = -0.06", fillcolor="#fdf6f0"] ;
335 -> 336 ;
337 [label="x1 <= 0.056\nsquared_error = 0.0\nsamples = 3\nvalue = -0.019", fillcolor="#fae7da"] ;
335 -> 337 ;
338 [label="squared_error = 0.0\nsamples = 1\nvalue = 0.005", fillcolor="#f8dfcc"] ;
337 -> 338 ;
339 [label="x1 <= 0.059\nsquared_error = 0.0\nsamples = 2\nvalue = -0.031", fillcolor="#fbece0"] ;
337 -> 339 ;
340 [label="squared_error = 0.0\nsamples = 1\nvalue = -0.029", fillcolor="#fbebdf"] ;
339 -> 340 ;
341 [label="squared_error = 0.0\nsamples = 1\nvalue = -0.033", fillcolor="#fbece1"] ;
339 -> 341 ;
342 [label="x1 <= 0.091\nsquared_error = 0.0\nsamples = 10\nvalue = 0.006", fillcolor="#f8decb"] ;
334 -> 342 ;
343 [label="x1 <= 0.078\nsquared_error = 0.0\nsamples = 5\nvalue = 0.015", fillcolor="#f8dbc7"] ;
342 -> 343 ;
344 [label="x1 <= 0.069\nsquared_error = 0.0\nsamples = 3\nvalue = 0.009", fillcolor="#f8ddca"] ;
343 -> 344 ;
345 [label="squared_error = 0.0\nsamples = 1\nvalue = 0.02", fillcolor="#f7d9c4"] ;
344 -> 345 ;
346 [label="x1 <= 0.073\nsquared_error = 0.0\nsamples = 2\nvalue = 0.004", fillcolor="#f8dfcd"] ;
344 -> 346 ;
347 [label="squared_error = 0.0\nsamples = 1\nvalue = 0.005", fillcolor="#f8dfcc"] ;
346 -> 347 ;
348 [label="squared_error = 0.0\nsamples = 1\nvalue = 0.003", fillcolor="#f9e0ce"] ;
346 -> 348 ;
349 [label="x1 <= 0.085\nsquared_error = 0.0\nsamples = 2\nvalue = 0.023", fillcolor="#f7d8c2"] ;
343 -> 349 ;
350 [label="squared_error = 0.0\nsamples = 1\nvalue = 0.021", fillcolor="#f7d9c3"] ;
349 -> 350 ;
351 [label="squared_error = 0.0\nsamples = 1\nvalue = 0.025", fillcolor="#f7d8c1"] ;
349 -> 351 ;
352 [label="x1 <= 0.095\nsquared_error = 0.0\nsamples = 5\nvalue = -0.002", fillcolor="#f9e1d0"] ;
342 -> 352 ;
353 [label="x1 <= 0.092\nsquared_error = 0.0\nsamples = 2\nvalue = -0.014", fillcolor="#fae6d7"] ;
352 -> 353 ;
354 [label="squared_error = 0.0\nsamples = 1\nvalue = -0.01", fillcolor="#f9e4d4"] ;
353 -> 354 ;
355 [label="squared_error = 0.0\nsamples = 1\nvalue = -0.019", fillcolor="#fae7da"] ;
353 -> 355 ;
356 [label="x1 <= 0.1\nsquared_error = 0.0\nsamples = 3\nvalue = 0.007", fillcolor="#f8decb"] ;
352 -> 356 ;
357 [label="x1 <= 0.098\nsquared_error = 0.0\nsamples = 2\nvalue = 0.017", fillcolor="#f7dac6"] ;
356 -> 357 ;
358 [label="squared_error = 0.0\nsamples = 1\nvalue = 0.005", fillcolor="#f8dfcc"] ;
357 -> 358 ;
359 [label="squared_error = 0.0\nsamples = 1\nvalue = 0.029", fillcolor="#f7d6bf"] ;
357 -> 359 ;
360 [label="squared_error = -0.0\nsamples = 1\nvalue = -0.014", fillcolor="#fae5d7"] ;
356 -> 360 ;
361 [label="squared_error = 0.0\nsamples = 1\nvalue = 0.06", fillcolor="#f4cbad"] ;
223 -> 361 ;
362 [label="squared_error = 0.0\nsamples = 1\nvalue = -0.086", fillcolor="#ffffff"] ;
222 -> 362 ;
363 [label="x1 <= 0.133\nsquared_error = 0.001\nsamples = 22\nvalue = 0.023", fillcolor="#f7d8c2"] ;
221 -> 363 ;
364 [label="x1 <= 0.113\nsquared_error = 0.001\nsamples = 8\nvalue = 0.049", fillcolor="#f5cfb4"] ;
363 -> 364 ;
365 [label="x1 <= 0.111\nsquared_error = 0.0\nsamples = 2\nvalue = 0.077", fillcolor="#f3c5a4"] ;
364 -> 365 ;
366 [label="squared_error = 0.0\nsamples = 1\nvalue = 0.078", fillcolor="#f3c5a4"] ;
365 -> 366 ;
367 [label="squared_error = -0.0\nsamples = 1\nvalue = 0.076", fillcolor="#f3c5a4"] ;
365 -> 367 ;
368 [label="x1 <= 0.132\nsquared_error = 0.0\nsamples = 6\nvalue = 0.04", fillcolor="#f6d2b9"] ;
364 -> 368 ;
369 [label="x1 <= 0.119\nsquared_error = 0.0\nsamples = 4\nvalue = 0.027", fillcolor="#f7d7c0"] ;
368 -> 369 ;
370 [label="squared_error = 0.0\nsamples = 1\nvalue = 0.016", fillcolor="#f8dbc6"] ;
369 -> 370 ;
371 [label="x1 <= 0.127\nsquared_error = 0.0\nsamples = 3\nvalue = 0.031", fillcolor="#f6d6be"] ;
369 -> 371 ;
372 [label="x1 <= 0.123\nsquared_error = 0.0\nsamples = 2\nvalue = 0.037", fillcolor="#f6d3ba"] ;
371 -> 372 ;
373 [label="squared_error = 0.0\nsamples = 1\nvalue = 0.034", fillcolor="#f6d4bc"] ;
372 -> 373 ;
374 [label="squared_error = -0.0\nsamples = 1\nvalue = 0.04", fillcolor="#f6d2b9"] ;
372 -> 374 ;
375 [label="squared_error = 0.0\nsamples = 1\nvalue = 0.018", fillcolor="#f7dac5"] ;
371 -> 375 ;
376 [label="x1 <= 0.133\nsquared_error = 0.0\nsamples = 2\nvalue = 0.066", fillcolor="#f4c9aa"] ;
368 -> 376 ;
377 [label="squared_error = 0.0\nsamples = 1\nvalue = 0.072", fillcolor="#f3c7a7"] ;
376 -> 377 ;
378 [label="squared_error = 0.0\nsamples = 1\nvalue = 0.059", fillcolor="#f4ccae"] ;
376 -> 378 ;
379 [label="x1 <= 0.133\nsquared_error = 0.0\nsamples = 14\nvalue = 0.008", fillcolor="#f8deca"] ;
363 -> 379 ;
380 [label="squared_error = 0.0\nsamples = 1\nvalue = -0.026", fillcolor="#fbeadd"] ;
379 -> 380 ;
381 [label="x1 <= 0.135\nsquared_error = 0.0\nsamples = 13\nvalue = 0.011", fillcolor="#f8ddc9"] ;
379 -> 381 ;
382 [label="squared_error = 0.0\nsamples = 1\nvalue = 0.053", fillcolor="#f5ceb1"] ;
381 -> 382 ;
383 [label="x1 <= 0.159\nsquared_error = 0.0\nsamples = 12\nvalue = 0.007", fillcolor="#f8decb"] ;
381 -> 383 ;
384 [label="x1 <= 0.15\nsquared_error = 0.0\nsamples = 9\nvalue = 0.003", fillcolor="#f9e0ce"] ;
383 -> 384 ;
385 [label="x1 <= 0.145\nsquared_error = 0.0\nsamples = 6\nvalue = 0.008", fillcolor="#f8decb"] ;
384 -> 385 ;
386 [label="x1 <= 0.144\nsquared_error = 0.0\nsamples = 4\nvalue = 0.004", fillcolor="#f8dfcd"] ;
385 -> 386 ;
387 [label="x1 <= 0.137\nsquared_error = 0.0\nsamples = 3\nvalue = 0.008", fillcolor="#f8ddca"] ;
386 -> 387 ;
388 [label="squared_error = 0.0\nsamples = 1\nvalue = -0.002", fillcolor="#f9e1d0"] ;
387 -> 388 ;
389 [label="x1 <= 0.14\nsquared_error = 0.0\nsamples = 2\nvalue = 0.014", fillcolor="#f8dcc7"] ;
387 -> 389 ;
390 [label="squared_error = 0.0\nsamples = 1\nvalue = 0.015", fillcolor="#f8dbc7"] ;
389 -> 390 ;
391 [label="squared_error = -0.0\nsamples = 1\nvalue = 0.012", fillcolor="#f8dcc8"] ;
389 -> 391 ;
392 [label="squared_error = 0.0\nsamples = 1\nvalue = -0.011", fillcolor="#fae4d5"] ;
386 -> 392 ;
393 [label="x1 <= 0.148\nsquared_error = 0.0\nsamples = 2\nvalue = 0.017", fillcolor="#f7dbc6"] ;
385 -> 393 ;
394 [label="squared_error = 0.0\nsamples = 1\nvalue = 0.013", fillcolor="#f8dcc8"] ;
393 -> 394 ;
395 [label="squared_error = -0.0\nsamples = 1\nvalue = 0.021", fillcolor="#f7d9c4"] ;
393 -> 395 ;
396 [label="x1 <= 0.151\nsquared_error = 0.0\nsamples = 3\nvalue = -0.008", fillcolor="#f9e3d3"] ;
384 -> 396 ;
397 [label="squared_error = 0.0\nsamples = 1\nvalue = -0.002", fillcolor="#f9e1d0"] ;
396 -> 397 ;
398 [label="x1 <= 0.155\nsquared_error = 0.0\nsamples = 2\nvalue = -0.01", fillcolor="#f9e4d5"] ;
396 -> 398 ;
399 [label="squared_error = 0.0\nsamples = 1\nvalue = -0.016", fillcolor="#fae6d8"] ;
398 -> 399 ;
400 [label="squared_error = 0.0\nsamples = 1\nvalue = -0.005", fillcolor="#f9e2d2"] ;
398 -> 400 ;
401 [label="x1 <= 0.161\nsquared_error = 0.0\nsamples = 3\nvalue = 0.021", fillcolor="#f7d9c3"] ;
383 -> 401 ;
402 [label="squared_error = 0.0\nsamples = 1\nvalue = 0.029", fillcolor="#f7d6bf"] ;
401 -> 402 ;
403 [label="x1 <= 0.163\nsquared_error = 0.0\nsamples = 2\nvalue = 0.017", fillcolor="#f7dbc6"] ;
401 -> 403 ;
404 [label="squared_error = 0.0\nsamples = 1\nvalue = 0.008", fillcolor="#f8ddca"] ;
403 -> 404 ;
405 [label="squared_error = 0.0\nsamples = 1\nvalue = 0.025", fillcolor="#f7d8c1"] ;
403 -> 405 ;
406 [label="x1 <= 0.205\nsquared_error = 0.001\nsamples = 25\nvalue = 0.053", fillcolor="#f5ceb1"] ;
180 -> 406 ;
407 [label="x1 <= 0.197\nsquared_error = 0.001\nsamples = 10\nvalue = 0.039", fillcolor="#f6d3b9"] ;
406 -> 407 ;
408 [label="x1 <= 0.194\nsquared_error = 0.0\nsamples = 6\nvalue = 0.051", fillcolor="#f5ceb2"] ;
407 -> 408 ;
409 [label="x1 <= 0.188\nsquared_error = 0.0\nsamples = 5\nvalue = 0.048", fillcolor="#f5cfb4"] ;
408 -> 409 ;
410 [label="x1 <= 0.181\nsquared_error = 0.0\nsamples = 3\nvalue = 0.056", fillcolor="#f5cdb0"] ;
409 -> 410 ;
411 [label="x1 <= 0.175\nsquared_error = 0.0\nsamples = 2\nvalue = 0.045", fillcolor="#f5d0b6"] ;
410 -> 411 ;
412 [label="squared_error = 0.0\nsamples = 1\nvalue = 0.058", fillcolor="#f4ccaf"] ;
411 -> 412 ;
413 [label="squared_error = 0.0\nsamples = 1\nvalue = 0.032", fillcolor="#f6d5bd"] ;
411 -> 413 ;
414 [label="squared_error = 0.0\nsamples = 1\nvalue = 0.077", fillcolor="#f3c5a4"] ;
410 -> 414 ;
415 [label="x1 <= 0.191\nsquared_error = 0.0\nsamples = 2\nvalue = 0.037", fillcolor="#f6d3ba"] ;
409 -> 415 ;
416 [label="squared_error = 0.0\nsamples = 1\nvalue = 0.04", fillcolor="#f6d2b9"] ;
415 -> 416 ;
417 [label="squared_error = 0.0\nsamples = 1\nvalue = 0.034", fillcolor="#f6d4bc"] ;
415 -> 417 ;
418 [label="squared_error = -0.0\nsamples = 1\nvalue = 0.065", fillcolor="#f4c9ab"] ;
408 -> 418 ;
419 [label="x1 <= 0.202\nsquared_error = 0.0\nsamples = 4\nvalue = 0.02", fillcolor="#f7d9c4"] ;
407 -> 419 ;
420 [label="x1 <= 0.199\nsquared_error = 0.0\nsamples = 2\nvalue = 0.031", fillcolor="#f6d6be"] ;
419 -> 420 ;
421 [label="squared_error = 0.0\nsamples = 1\nvalue = 0.013", fillcolor="#f8dcc8"] ;
420 -> 421 ;
422 [label="squared_error = -0.0\nsamples = 1\nvalue = 0.049", fillcolor="#f5cfb4"] ;
420 -> 422 ;
423 [label="x1 <= 0.203\nsquared_error = 0.0\nsamples = 2\nvalue = 0.009", fillcolor="#f8ddca"] ;
419 -> 423 ;
424 [label="squared_error = 0.0\nsamples = 1\nvalue = -0.0", fillcolor="#f9e1cf"] ;
423 -> 424 ;
425 [label="squared_error = 0.0\nsamples = 1\nvalue = 0.018", fillcolor="#f7dac5"] ;
423 -> 425 ;
426 [label="x1 <= 0.236\nsquared_error = 0.001\nsamples = 15\nvalue = 0.063", fillcolor="#f4caac"] ;
406 -> 426 ;
427 [label="x1 <= 0.231\nsquared_error = 0.001\nsamples = 10\nvalue = 0.072", fillcolor="#f3c7a7"] ;
426 -> 427 ;
428 [label="x1 <= 0.229\nsquared_error = 0.0\nsamples = 9\nvalue = 0.067", fillcolor="#f4c9a9"] ;
427 -> 428 ;
429 [label="x1 <= 0.213\nsquared_error = 0.0\nsamples = 7\nvalue = 0.072", fillcolor="#f3c7a7"] ;
428 -> 429 ;
430 [label="x1 <= 0.207\nsquared_error = 0.0\nsamples = 3\nvalue = 0.059", fillcolor="#f4cbae"] ;
429 -> 430 ;
431 [label="squared_error = 0.0\nsamples = 1\nvalue = 0.081", fillcolor="#f3c4a2"] ;
430 -> 431 ;
432 [label="x1 <= 0.21\nsquared_error = 0.0\nsamples = 2\nvalue = 0.048", fillcolor="#f5cfb4"] ;
430 -> 432 ;
433 [label="squared_error = 0.0\nsamples = 1\nvalue = 0.04", fillcolor="#f6d2b9"] ;
432 -> 433 ;
434 [label="squared_error = 0.0\nsamples = 1\nvalue = 0.056", fillcolor="#f5cdb0"] ;
432 -> 434 ;
435 [label="x1 <= 0.218\nsquared_error = 0.0\nsamples = 4\nvalue = 0.083", fillcolor="#f3c3a1"] ;
429 -> 435 ;
436 [label="squared_error = 0.0\nsamples = 1\nvalue = 0.108", fillcolor="#f1ba92"] ;
435 -> 436 ;
437 [label="x1 <= 0.227\nsquared_error = 0.0\nsamples = 3\nvalue = 0.074", fillcolor="#f3c6a6"] ;
435 -> 437 ;
438 [label="x1 <= 0.224\nsquared_error = 0.0\nsamples = 2\nvalue = 0.078", fillcolor="#f3c5a4"] ;
437 -> 438 ;
439 [label="squared_error = 0.0\nsamples = 1\nvalue = 0.072", fillcolor="#f3c7a7"] ;
438 -> 439 ;
440 [label="squared_error = 0.0\nsamples = 1\nvalue = 0.083", fillcolor="#f3c3a1"] ;
438 -> 440 ;
441 [label="squared_error = 0.0\nsamples = 1\nvalue = 0.067", fillcolor="#f4c9aa"] ;
437 -> 441 ;
442 [label="x1 <= 0.229\nsquared_error = 0.0\nsamples = 2\nvalue = 0.049", fillcolor="#f5cfb4"] ;
428 -> 442 ;
443 [label="squared_error = 0.0\nsamples = 1\nvalue = 0.035", fillcolor="#f6d4bc"] ;
442 -> 443 ;
444 [label="squared_error = 0.0\nsamples = 1\nvalue = 0.062", fillcolor="#f4caac"] ;
442 -> 444 ;
445 [label="squared_error = 0.0\nsamples = 1\nvalue = 0.118", fillcolor="#f0b68d"] ;
427 -> 445 ;
446 [label="x1 <= 0.244\nsquared_error = 0.0\nsamples = 5\nvalue = 0.044", fillcolor="#f5d1b7"] ;
426 -> 446 ;
447 [label="squared_error = 0.0\nsamples = 1\nvalue = 0.052", fillcolor="#f5ceb2"] ;
446 -> 447 ;
448 [label="x1 <= 0.251\nsquared_error = 0.0\nsamples = 4\nvalue = 0.042", fillcolor="#f6d2b8"] ;
446 -> 448 ;
449 [label="squared_error = 0.0\nsamples = 1\nvalue = 0.029", fillcolor="#f7d6bf"] ;
448 -> 449 ;
450 [label="x1 <= 0.261\nsquared_error = 0.0\nsamples = 3\nvalue = 0.046", fillcolor="#f5d0b5"] ;
448 -> 450 ;
451 [label="x1 <= 0.258\nsquared_error = 0.0\nsamples = 2\nvalue = 0.043", fillcolor="#f6d1b7"] ;
450 -> 451 ;
452 [label="squared_error = 0.0\nsamples = 1\nvalue = 0.048", fillcolor="#f5cfb4"] ;
451 -> 452 ;
453 [label="squared_error = 0.0\nsamples = 1\nvalue = 0.038", fillcolor="#f6d3ba"] ;
451 -> 453 ;
454 [label="squared_error = 0.0\nsamples = 1\nvalue = 0.051", fillcolor="#f5ceb2"] ;
450 -> 454 ;
455 [label="x1 <= 0.31\nsquared_error = 0.001\nsamples = 35\nvalue = 0.099", fillcolor="#f1bd98"] ;
99 -> 455 ;
456 [label="x1 <= 0.274\nsquared_error = 0.001\nsamples = 16\nvalue = 0.078", fillcolor="#f3c5a4"] ;
455 -> 456 ;
457 [label="x1 <= 0.27\nsquared_error = 0.0\nsamples = 4\nvalue = 0.094", fillcolor="#f2bf9b"] ;
456 -> 457 ;
458 [label="squared_error = 0.0\nsamples = 1\nvalue = 0.081", fillcolor="#f3c4a2"] ;
457 -> 458 ;
459 [label="x1 <= 0.271\nsquared_error = 0.0\nsamples = 3\nvalue = 0.098", fillcolor="#f1bd98"] ;
457 -> 459 ;
460 [label="squared_error = 0.0\nsamples = 1\nvalue = 0.108", fillcolor="#f1ba93"] ;
459 -> 460 ;
461 [label="x1 <= 0.272\nsquared_error = 0.0\nsamples = 2\nvalue = 0.093", fillcolor="#f2bf9b"] ;
459 -> 461 ;
462 [label="squared_error = 0.0\nsamples = 1\nvalue = 0.09", fillcolor="#f2c09d"] ;
461 -> 462 ;
463 [label="squared_error = 0.0\nsamples = 1\nvalue = 0.097", fillcolor="#f2be99"] ;
461 -> 463 ;
464 [label="x1 <= 0.283\nsquared_error = 0.001\nsamples = 12\nvalue = 0.072", fillcolor="#f3c7a7"] ;
456 -> 464 ;
465 [label="x1 <= 0.278\nsquared_error = 0.0\nsamples = 2\nvalue = 0.028", fillcolor="#f7d7bf"] ;
464 -> 465 ;
466 [label="squared_error = 0.0\nsamples = 1\nvalue = 0.039", fillcolor="#f6d3b9"] ;
465 -> 466 ;
467 [label="squared_error = 0.0\nsamples = 1\nvalue = 0.017", fillcolor="#f7dac5"] ;
465 -> 467 ;
468 [label="x1 <= 0.308\nsquared_error = 0.001\nsamples = 10\nvalue = 0.081", fillcolor="#f3c4a2"] ;
464 -> 468 ;
469 [label="x1 <= 0.295\nsquared_error = 0.0\nsamples = 8\nvalue = 0.088", fillcolor="#f2c19e"] ;
468 -> 469 ;
470 [label="x1 <= 0.29\nsquared_error = 0.0\nsamples = 2\nvalue = 0.063", fillcolor="#f4caac"] ;
469 -> 470 ;
471 [label="squared_error = 0.0\nsamples = 1\nvalue = 0.06", fillcolor="#f4cbad"] ;
470 -> 471 ;
472 [label="squared_error = 0.0\nsamples = 1\nvalue = 0.066", fillcolor="#f4c9aa"] ;
470 -> 472 ;
473 [label="x1 <= 0.306\nsquared_error = 0.0\nsamples = 6\nvalue = 0.097", fillcolor="#f2be99"] ;
469 -> 473 ;
474 [label="x1 <= 0.303\nsquared_error = 0.0\nsamples = 4\nvalue = 0.089", fillcolor="#f2c19d"] ;
473 -> 474 ;
475 [label="x1 <= 0.3\nsquared_error = 0.0\nsamples = 3\nvalue = 0.096", fillcolor="#f2be9a"] ;
474 -> 475 ;
476 [label="x1 <= 0.297\nsquared_error = 0.0\nsamples = 2\nvalue = 0.088", fillcolor="#f2c19e"] ;
475 -> 476 ;
477 [label="squared_error = 0.0\nsamples = 1\nvalue = 0.086", fillcolor="#f2c29f"] ;
476 -> 477 ;
478 [label="squared_error = 0.0\nsamples = 1\nvalue = 0.09", fillcolor="#f2c09c"] ;
476 -> 478 ;
479 [label="squared_error = -0.0\nsamples = 1\nvalue = 0.11", fillcolor="#f1b991"] ;
475 -> 479 ;
480 [label="squared_error = 0.0\nsamples = 1\nvalue = 0.071", fillcolor="#f4c7a7"] ;
474 -> 480 ;
481 [label="x1 <= 0.308\nsquared_error = 0.0\nsamples = 2\nvalue = 0.111", fillcolor="#f1b991"] ;
473 -> 481 ;
482 [label="squared_error = 0.0\nsamples = 1\nvalue = 0.12", fillcolor="#f0b68c"] ;
481 -> 482 ;
483 [label="squared_error = 0.0\nsamples = 1\nvalue = 0.102", fillcolor="#f1bc96"] ;
481 -> 483 ;
484 [label="x1 <= 0.309\nsquared_error = 0.0\nsamples = 2\nvalue = 0.053", fillcolor="#f5ceb1"] ;
468 -> 484 ;
485 [label="squared_error = 0.0\nsamples = 1\nvalue = 0.052", fillcolor="#f5ceb2"] ;
484 -> 485 ;
486 [label="squared_error = 0.0\nsamples = 1\nvalue = 0.054", fillcolor="#f5cdb1"] ;
484 -> 486 ;
487 [label="x1 <= 0.334\nsquared_error = 0.001\nsamples = 19\nvalue = 0.117", fillcolor="#f0b78e"] ;
455 -> 487 ;
488 [label="x1 <= 0.331\nsquared_error = 0.0\nsamples = 7\nvalue = 0.105", fillcolor="#f1bb94"] ;
487 -> 488 ;
489 [label="x1 <= 0.32\nsquared_error = 0.0\nsamples = 6\nvalue = 0.11", fillcolor="#f1b991"] ;
488 -> 489 ;
490 [label="x1 <= 0.316\nsquared_error = 0.0\nsamples = 4\nvalue = 0.116", fillcolor="#f0b78e"] ;
489 -> 490 ;
491 [label="x1 <= 0.313\nsquared_error = 0.0\nsamples = 2\nvalue = 0.108", fillcolor="#f1ba93"] ;
490 -> 491 ;
492 [label="squared_error = 0.0\nsamples = 1\nvalue = 0.113", fillcolor="#f0b890"] ;
491 -> 492 ;
493 [label="squared_error = 0.0\nsamples = 1\nvalue = 0.103", fillcolor="#f1bc95"] ;
491 -> 493 ;
494 [label="x1 <= 0.318\nsquared_error = 0.0\nsamples = 2\nvalue = 0.123", fillcolor="#f0b58a"] ;
490 -> 494 ;
495 [label="squared_error = 0.0\nsamples = 1\nvalue = 0.136", fillcolor="#efb083"] ;
494 -> 495 ;
496 [label="squared_error = 0.0\nsamples = 1\nvalue = 0.111", fillcolor="#f1b991"] ;
494 -> 496 ;
497 [label="x1 <= 0.326\nsquared_error = 0.0\nsamples = 2\nvalue = 0.1", fillcolor="#f1bd97"] ;
489 -> 497 ;
498 [label="squared_error = 0.0\nsamples = 1\nvalue = 0.081", fillcolor="#f3c4a2"] ;
497 -> 498 ;
499 [label="squared_error = 0.0\nsamples = 1\nvalue = 0.119", fillcolor="#f0b68d"] ;
497 -> 499 ;
500 [label="squared_error = 0.0\nsamples = 1\nvalue = 0.075", fillcolor="#f3c6a5"] ;
488 -> 500 ;
501 [label="x1 <= 0.35\nsquared_error = 0.001\nsamples = 12\nvalue = 0.123", fillcolor="#f0b58a"] ;
487 -> 501 ;
502 [label="x1 <= 0.342\nsquared_error = 0.0\nsamples = 2\nvalue = 0.152", fillcolor="#eeaa7a"] ;
501 -> 502 ;
503 [label="squared_error = 0.0\nsamples = 1\nvalue = 0.153", fillcolor="#edaa79"] ;
502 -> 503 ;
504 [label="squared_error = -0.0\nsamples = 1\nvalue = 0.151", fillcolor="#eeab7b"] ;
502 -> 504 ;
505 [label="x1 <= 0.362\nsquared_error = 0.0\nsamples = 10\nvalue = 0.117", fillcolor="#f0b78d"] ;
501 -> 505 ;
506 [label="x1 <= 0.357\nsquared_error = 0.0\nsamples = 3\nvalue = 0.101", fillcolor="#f1bd97"] ;
505 -> 506 ;
507 [label="x1 <= 0.352\nsquared_error = 0.0\nsamples = 2\nvalue = 0.098", fillcolor="#f1bd98"] ;
506 -> 507 ;
508 [label="squared_error = 0.0\nsamples = 1\nvalue = 0.101", fillcolor="#f1bd97"] ;
507 -> 508 ;
509 [label="squared_error = -0.0\nsamples = 1\nvalue = 0.096", fillcolor="#f2be99"] ;
507 -> 509 ;
510 [label="squared_error = 0.0\nsamples = 1\nvalue = 0.105", fillcolor="#f1bb94"] ;
506 -> 510 ;
511 [label="x1 <= 0.367\nsquared_error = 0.0\nsamples = 7\nvalue = 0.125", fillcolor="#f0b489"] ;
505 -> 511 ;
512 [label="x1 <= 0.365\nsquared_error = 0.0\nsamples = 2\nvalue = 0.158", fillcolor="#eda877"] ;
511 -> 512 ;
513 [label="squared_error = 0.0\nsamples = 1\nvalue = 0.157", fillcolor="#eda977"] ;
512 -> 513 ;
514 [label="squared_error = 0.0\nsamples = 1\nvalue = 0.16", fillcolor="#eda876"] ;
512 -> 514 ;
515 [label="x1 <= 0.374\nsquared_error = 0.0\nsamples = 5\nvalue = 0.111", fillcolor="#f1b991"] ;
511 -> 515 ;
516 [label="x1 <= 0.369\nsquared_error = 0.0\nsamples = 2\nvalue = 0.105", fillcolor="#f1bb94"] ;
515 -> 516 ;
517 [label="squared_error = 0.0\nsamples = 1\nvalue = 0.115", fillcolor="#f0b78f"] ;
516 -> 517 ;
518 [label="squared_error = 0.0\nsamples = 1\nvalue = 0.096", fillcolor="#f2be99"] ;
516 -> 518 ;
519 [label="x1 <= 0.377\nsquared_error = 0.0\nsamples = 3\nvalue = 0.115", fillcolor="#f0b78f"] ;
515 -> 519 ;
520 [label="squared_error = 0.0\nsamples = 1\nvalue = 0.12", fillcolor="#f0b68c"] ;
519 -> 520 ;
521 [label="x1 <= 0.382\nsquared_error = 0.0\nsamples = 2\nvalue = 0.113", fillcolor="#f0b890"] ;
519 -> 521 ;
522 [label="squared_error = 0.0\nsamples = 1\nvalue = 0.111", fillcolor="#f1b991"] ;
521 -> 522 ;
523 [label="squared_error = 0.0\nsamples = 1\nvalue = 0.114", fillcolor="#f0b88f"] ;
521 -> 523 ;
524 [label="x1 <= 0.414\nsquared_error = 0.002\nsamples = 38\nvalue = 0.194", fillcolor="#ea9b62"] ;
0 -> 524 [labeldistance=2.5, labelangle=-45, headlabel="False"] ;
525 [label="x1 <= 0.394\nsquared_error = 0.001\nsamples = 14\nvalue = 0.153", fillcolor="#edaa7a"] ;
524 -> 525 ;
526 [label="x1 <= 0.391\nsquared_error = 0.001\nsamples = 4\nvalue = 0.168", fillcolor="#eca471"] ;
525 -> 526 ;
527 [label="x1 <= 0.389\nsquared_error = 0.0\nsamples = 2\nvalue = 0.149", fillcolor="#eeab7c"] ;
526 -> 527 ;
528 [label="squared_error = 0.0\nsamples = 1\nvalue = 0.153", fillcolor="#edaa7a"] ;
527 -> 528 ;
529 [label="squared_error = -0.0\nsamples = 1\nvalue = 0.145", fillcolor="#eead7e"] ;
527 -> 529 ;
530 [label="x1 <= 0.392\nsquared_error = 0.001\nsamples = 2\nvalue = 0.188", fillcolor="#eb9e66"] ;
526 -> 530 ;
531 [label="squared_error = 0.0\nsamples = 1\nvalue = 0.213", fillcolor="#e99558"] ;
530 -> 531 ;
532 [label="squared_error = -0.0\nsamples = 1\nvalue = 0.163", fillcolor="#eda674"] ;
530 -> 532 ;
533 [label="x1 <= 0.397\nsquared_error = 0.001\nsamples = 10\nvalue = 0.146", fillcolor="#eeac7d"] ;
525 -> 533 ;
534 [label="x1 <= 0.395\nsquared_error = 0.001\nsamples = 3\nvalue = 0.118", fillcolor="#f0b68d"] ;
533 -> 534 ;
535 [label="squared_error = 0.0\nsamples = 1\nvalue = 0.097", fillcolor="#f2be99"] ;
534 -> 535 ;
536 [label="x1 <= 0.397\nsquared_error = 0.001\nsamples = 2\nvalue = 0.129", fillcolor="#efb387"] ;
534 -> 536 ;
537 [label="squared_error = 0.0\nsamples = 1\nvalue = 0.152", fillcolor="#eeaa7a"] ;
536 -> 537 ;
538 [label="squared_error = 0.0\nsamples = 1\nvalue = 0.105", fillcolor="#f1bb94"] ;
536 -> 538 ;
539 [label="x1 <= 0.404\nsquared_error = 0.001\nsamples = 7\nvalue = 0.159", fillcolor="#eda876"] ;
533 -> 539 ;
540 [label="x1 <= 0.398\nsquared_error = 0.0\nsamples = 3\nvalue = 0.176", fillcolor="#eca26d"] ;
539 -> 540 ;
541 [label="squared_error = 0.0\nsamples = 1\nvalue = 0.187", fillcolor="#eb9e66"] ;
540 -> 541 ;
542 [label="x1 <= 0.399\nsquared_error = 0.0\nsamples = 2\nvalue = 0.17", fillcolor="#eca470"] ;
540 -> 542 ;
543 [label="squared_error = 0.0\nsamples = 1\nvalue = 0.161", fillcolor="#eda775"] ;
542 -> 543 ;
544 [label="squared_error = 0.0\nsamples = 1\nvalue = 0.18", fillcolor="#eba06a"] ;
542 -> 544 ;
545 [label="x1 <= 0.409\nsquared_error = 0.001\nsamples = 4\nvalue = 0.145", fillcolor="#eead7e"] ;
539 -> 545 ;
546 [label="x1 <= 0.408\nsquared_error = 0.0\nsamples = 2\nvalue = 0.122", fillcolor="#f0b58b"] ;
545 -> 546 ;
547 [label="squared_error = 0.0\nsamples = 1\nvalue = 0.141", fillcolor="#eeae80"] ;
546 -> 547 ;
548 [label="squared_error = -0.0\nsamples = 1\nvalue = 0.103", fillcolor="#f1bc95"] ;
546 -> 548 ;
549 [label="x1 <= 0.411\nsquared_error = 0.0\nsamples = 2\nvalue = 0.169", fillcolor="#eca471"] ;
545 -> 549 ;
550 [label="squared_error = 0.0\nsamples = 1\nvalue = 0.181", fillcolor="#eba06a"] ;
549 -> 550 ;
551 [label="squared_error = -0.0\nsamples = 1\nvalue = 0.156", fillcolor="#eda978"] ;
549 -> 551 ;
552 [label="x1 <= 0.452\nsquared_error = 0.001\nsamples = 24\nvalue = 0.219", fillcolor="#e99355"] ;
524 -> 552 ;
553 [label="x1 <= 0.44\nsquared_error = 0.001\nsamples = 12\nvalue = 0.198", fillcolor="#ea9a60"] ;
552 -> 553 ;
554 [label="x1 <= 0.433\nsquared_error = 0.001\nsamples = 8\nvalue = 0.21", fillcolor="#e99659"] ;
553 -> 554 ;
555 [label="x1 <= 0.418\nsquared_error = 0.0\nsamples = 5\nvalue = 0.194", fillcolor="#ea9b62"] ;
554 -> 555 ;
556 [label="squared_error = 0.0\nsamples = 1\nvalue = 0.221", fillcolor="#e89253"] ;
555 -> 556 ;
557 [label="x1 <= 0.429\nsquared_error = 0.0\nsamples = 4\nvalue = 0.187", fillcolor="#eb9e66"] ;
555 -> 557 ;
558 [label="x1 <= 0.423\nsquared_error = 0.0\nsamples = 3\nvalue = 0.193", fillcolor="#eb9c63"] ;
557 -> 558 ;
559 [label="squared_error = 0.0\nsamples = 1\nvalue = 0.196", fillcolor="#ea9b62"] ;
558 -> 559 ;
560 [label="x1 <= 0.427\nsquared_error = 0.0\nsamples = 2\nvalue = 0.192", fillcolor="#eb9c64"] ;
558 -> 560 ;
561 [label="squared_error = 0.0\nsamples = 1\nvalue = 0.19", fillcolor="#eb9d65"] ;
560 -> 561 ;
562 [label="squared_error = 0.0\nsamples = 1\nvalue = 0.193", fillcolor="#eb9c63"] ;
560 -> 562 ;
563 [label="squared_error = -0.0\nsamples = 1\nvalue = 0.171", fillcolor="#eca470"] ;
557 -> 563 ;
564 [label="x1 <= 0.438\nsquared_error = 0.0\nsamples = 3\nvalue = 0.237", fillcolor="#e78c4b"] ;
554 -> 564 ;
565 [label="x1 <= 0.436\nsquared_error = 0.0\nsamples = 2\nvalue = 0.226", fillcolor="#e89050"] ;
564 -> 565 ;
566 [label="squared_error = 0.0\nsamples = 1\nvalue = 0.241", fillcolor="#e78b48"] ;
565 -> 566 ;
567 [label="squared_error = 0.0\nsamples = 1\nvalue = 0.212", fillcolor="#e99558"] ;
565 -> 567 ;
568 [label="squared_error = -0.0\nsamples = 1\nvalue = 0.257", fillcolor="#e6853f"] ;
564 -> 568 ;
569 [label="x1 <= 0.442\nsquared_error = 0.0\nsamples = 4\nvalue = 0.175", fillcolor="#eca26d"] ;
553 -> 569 ;
570 [label="squared_error = 0.0\nsamples = 1\nvalue = 0.149", fillcolor="#eeac7c"] ;
569 -> 570 ;
571 [label="x1 <= 0.446\nsquared_error = 0.0\nsamples = 3\nvalue = 0.184", fillcolor="#eb9f68"] ;
569 -> 571 ;
572 [label="squared_error = 0.0\nsamples = 1\nvalue = 0.203", fillcolor="#ea985d"] ;
571 -> 572 ;
573 [label="x1 <= 0.45\nsquared_error = 0.0\nsamples = 2\nvalue = 0.174", fillcolor="#eca36e"] ;
571 -> 573 ;
574 [label="squared_error = 0.0\nsamples = 1\nvalue = 0.164", fillcolor="#eda673"] ;
573 -> 574 ;
575 [label="squared_error = 0.0\nsamples = 1\nvalue = 0.184", fillcolor="#eb9f68"] ;
573 -> 575 ;
576 [label="x1 <= 0.472\nsquared_error = 0.0\nsamples = 12\nvalue = 0.239", fillcolor="#e78b49"] ;
552 -> 576 ;
577 [label="x1 <= 0.465\nsquared_error = 0.0\nsamples = 8\nvalue = 0.248", fillcolor="#e68844"] ;
576 -> 577 ;
578 [label="x1 <= 0.463\nsquared_error = 0.0\nsamples = 3\nvalue = 0.239", fillcolor="#e78c4a"] ;
577 -> 578 ;
579 [label="x1 <= 0.458\nsquared_error = 0.0\nsamples = 2\nvalue = 0.252", fillcolor="#e68742"] ;
578 -> 579 ;
580 [label="squared_error = 0.0\nsamples = 1\nvalue = 0.247", fillcolor="#e78845"] ;
579 -> 580 ;
581 [label="squared_error = 0.0\nsamples = 1\nvalue = 0.257", fillcolor="#e6853f"] ;
579 -> 581 ;
582 [label="squared_error = 0.0\nsamples = 1\nvalue = 0.211", fillcolor="#e99559"] ;
578 -> 582 ;
583 [label="x1 <= 0.47\nsquared_error = 0.0\nsamples = 5\nvalue = 0.254", fillcolor="#e68641"] ;
577 -> 583 ;
584 [label="x1 <= 0.468\nsquared_error = 0.0\nsamples = 3\nvalue = 0.262", fillcolor="#e5833d"] ;
583 -> 584 ;
585 [label="x1 <= 0.466\nsquared_error = 0.0\nsamples = 2\nvalue = 0.259", fillcolor="#e6843e"] ;
584 -> 585 ;
586 [label="squared_error = 0.0\nsamples = 1\nvalue = 0.266", fillcolor="#e5823a"] ;
585 -> 586 ;
587 [label="squared_error = 0.0\nsamples = 1\nvalue = 0.251", fillcolor="#e68742"] ;
585 -> 587 ;
588 [label="squared_error = 0.0\nsamples = 1\nvalue = 0.268", fillcolor="#e58139"] ;
584 -> 588 ;
589 [label="x1 <= 0.471\nsquared_error = 0.0\nsamples = 2\nvalue = 0.242", fillcolor="#e78a48"] ;
583 -> 589 ;
590 [label="squared_error = 0.0\nsamples = 1\nvalue = 0.247", fillcolor="#e78945"] ;
589 -> 590 ;
591 [label="squared_error = 0.0\nsamples = 1\nvalue = 0.238", fillcolor="#e78c4a"] ;
589 -> 591 ;
592 [label="x1 <= 0.479\nsquared_error = 0.0\nsamples = 4\nvalue = 0.222", fillcolor="#e89153"] ;
576 -> 592 ;
593 [label="squared_error = 0.0\nsamples = 1\nvalue = 0.207", fillcolor="#e9975b"] ;
592 -> 593 ;
594 [label="x1 <= 0.486\nsquared_error = 0.0\nsamples = 3\nvalue = 0.227", fillcolor="#e89050"] ;
592 -> 594 ;
595 [label="squared_error = 0.0\nsamples = 1\nvalue = 0.246", fillcolor="#e78945"] ;
594 -> 595 ;
596 [label="x1 <= 0.488\nsquared_error = 0.0\nsamples = 2\nvalue = 0.217", fillcolor="#e99355"] ;
594 -> 596 ;
597 [label="squared_error = 0.0\nsamples = 1\nvalue = 0.22", fillcolor="#e99254"] ;
596 -> 597 ;
598 [label="squared_error = 0.0\nsamples = 1\nvalue = 0.214", fillcolor="#e99457"] ;
596 -> 598 ;
}